%YAML:1.0
my_svm: !!opencv-ml-svm
   svm_type: C_SVC
   kernel: { type:LINEAR }
   C: 2.6699999999999999e+000
   term_criteria: { epsilon:1.1920928955078125e-007, iterations:1000 }
   var_all: 136
   var_count: 136
   class_count: 5
   class_labels: !!opencv-matrix
      rows: 1
      cols: 5
      dt: i
      data: [ 0, 1, 2, 3, 4 ]
   sv_total: 10
   support_vectors:
      - [ 3.14774066e-002, 2.43023457e-003, 2.23335214e-002,
          4.83098440e-003, 5.97861782e-003, 5.16656041e-003,
          5.76558243e-003, 3.48628545e-003, 1.85377232e-003,
          2.11835420e-003, -7.48958299e-003, -4.12249065e-004,
          -6.37392793e-003, -1.66485866e-003, 4.00419300e-003,
          -1.92975602e-003, 3.24900658e-003, 2.37241946e-003,
          9.73431487e-003, 2.17261235e-003, 1.00110602e-002,
          5.06833941e-003, 2.57447246e-003, 6.20116061e-003,
          4.68161190e-003, 7.23784696e-003, 2.12262524e-003,
          2.92497338e-003, 3.00349406e-004, -2.07535271e-003,
          8.47584940e-003, -5.29402355e-003, 2.68421341e-002,
          -5.24199288e-003, 6.19404204e-003, -4.45006369e-003,
          5.74198551e-004, -4.57354076e-003, -1.16018467e-002,
          -2.90609943e-003, -1.76651273e-002, 1.33318827e-003,
          -1.48208002e-002, 9.28002875e-003, -1.74588636e-002,
          -1.27062891e-002, -1.87196303e-002, -3.92831862e-003,
          -1.66330952e-002, 1.24903827e-003, -8.82565230e-003,
          2.45100050e-003, 7.88388029e-003, 4.17115120e-003,
          -6.43364666e-003, 1.10797631e-003, -5.58008812e-003,
          -3.48481443e-003, -7.44563295e-003, 5.21448348e-003,
          -7.74374790e-003, -2.86928960e-003, 4.69617080e-003,
          1.41209336e-002, 4.53021890e-003, 1.60210226e-002,
          -2.65448145e-003, -4.96482057e-003, -1.64889789e-003,
          9.32563469e-003, 1.27325801e-003, -7.54791265e-003,
          4.91087930e-003, 3.74092278e-003, -3.68181197e-003,
          4.42351494e-003, 1.13675976e-003, 4.90004336e-003,
          7.87417311e-003, 6.41389051e-003, 6.20753691e-003,
          8.96144751e-003, 1.03490753e-003, 1.15147028e-002,
          9.57166497e-003, -1.07901059e-002, 6.46518776e-003,
          -6.54035201e-003, 5.41871064e-004, -4.70303418e-003,
          5.46772871e-003, -4.23312979e-003, 5.87271387e-003,
          -9.50209983e-003, 7.56415725e-003, -1.13835195e-002,
          -2.19131950e-002, -2.65705902e-002, -1.12909172e-002,
          -1.54813379e-002, 1.56371784e-003, -1.05125131e-002,
          5.49492240e-003, -5.74560277e-003, 4.67837323e-003,
          9.19674421e-005, 1.31497334e-003, 4.98586288e-003,
          7.36981677e-003, 1.88263282e-002, 7.54591823e-003,
          1.17588940e-003, 3.11351568e-003, -8.34178354e-004,
          -6.84490020e-004, 1.11233545e-002, -2.14179512e-003,
          -4.77023935e-003, -3.22755077e-003, -1.60607398e-002,
          -2.38129515e-002, -3.06509901e-002, -1.21815577e-002,
          -2.50433618e-003, -9.58842132e-003, 5.78548620e-003,
          -8.48008133e-003, -2.39505176e-003, -5.78307640e-003,
          1.57957505e-002, -2.13291566e-003, -2.53393385e-003,
          -6.81677891e-004, -6.73232833e-003, -7.49571016e-003,
          -5.06395334e-003 ]
      - [ 1.56758260e-002, 3.90941277e-003, 2.77402950e-003,
          2.47392710e-003, 1.51163025e-003, 8.31573125e-005,
          4.34018811e-003, -2.68524047e-003, -1.50044344e-003,
          -4.12404817e-003, -1.24763716e-002, -5.10712620e-003,
          -6.08657114e-003, -4.51400504e-003, 1.40601047e-003,
          -1.74045924e-003, 2.44961563e-003, 2.74550170e-003,
          9.71655641e-003, 3.52108781e-003, 7.82558415e-003,
          5.29354578e-003, 2.35995091e-003, 7.77898263e-003,
          4.84781899e-003, 6.54659327e-003, 6.88662194e-003,
          5.41920401e-003, 3.98967229e-003, 1.82648620e-003,
          1.27630163e-004, -2.64798338e-003, 9.96456761e-003,
          -5.79527672e-003, 1.29987765e-002, 2.38481676e-003,
          5.84975071e-003, 8.02162220e-004, 1.71556091e-003,
          -7.30333442e-004, 1.54801086e-003, -2.18749908e-003,
          -3.14001739e-003, 5.45436633e-004, -8.04462004e-003,
          -5.97841106e-003, -7.38580432e-003, -3.45538347e-003,
          -6.61979942e-003, -3.44242784e-003, -2.22747191e-003,
          -4.85860417e-003, 2.19820091e-003, -5.19693876e-003,
          3.34669859e-003, -9.81318415e-004, 1.75969210e-004,
          2.43108929e-003, -2.53603375e-003, -4.91773826e-004,
          -9.69821529e-004, 1.70930792e-002, -6.94370363e-003,
          -6.60848264e-006, -2.94239540e-003, 7.75002129e-003,
          -3.29425302e-003, 1.37540093e-002, 5.37326618e-004,
          -7.11691659e-003, 3.01441265e-004, -1.53547371e-005,
          6.41289400e-003, 1.24034588e-003, 7.10861618e-003,
          1.79182866e-003, 7.51716178e-003, 5.18939877e-003,
          8.93014483e-003, 3.73562588e-003, 2.46238173e-003,
          2.03722529e-003, 5.52024087e-003, 2.38982655e-004,
          8.42672028e-003, -4.64745006e-003, 6.17595064e-003,
          -5.52932266e-003, 8.63460544e-003, -2.23927712e-003,
          4.63702623e-003, -1.99704641e-003, 1.05584913e-003,
          6.00006024e-005, 1.50381564e-003, -2.70942017e-003,
          -8.28625169e-003, -1.67877991e-002, -2.83730426e-003,
          -1.66493002e-002, 3.03810253e-003, -1.66351385e-002,
          7.83995166e-003, -5.94047830e-003, 4.55433037e-003,
          8.32488481e-003, 1.61025720e-003, 1.33722629e-002,
          3.37614538e-003, 1.70079693e-002, -3.95136978e-003,
          4.76515805e-003, -6.01301761e-003, 3.46830511e-003,
          -7.43356720e-003, 4.07051854e-003, -7.88590778e-003,
          -3.93126812e-003, -8.60576611e-003, -7.11222040e-003,
          -1.04785208e-002, -1.86978113e-002, 3.55437631e-003,
          -1.18058454e-002, 8.29877704e-003, 2.99671246e-003,
          5.89663163e-003, 4.99433745e-003, 1.44189491e-003,
          1.65849216e-002, -1.17631331e-002, 1.31597731e-003,
          -7.95745011e-003, -6.87076431e-003, -1.42628280e-002,
          -4.72878478e-003 ]
      - [ 1.51987858e-002, 9.06901143e-004, 7.24953506e-003,
          -2.32787861e-004, 3.73139186e-003, -2.24025338e-003,
          5.81166707e-003, -1.32200168e-003, -9.96840536e-004,
          -1.44160376e-003, -1.18919825e-002, -1.08571653e-003,
          -1.30819175e-002, -1.61731709e-003, -5.23778703e-003,
          -2.98563420e-004, -7.86175136e-004, 6.49979396e-004,
          -3.29301902e-003, 6.33549830e-003, -7.22235563e-005,
          6.26437040e-003, 1.06002565e-003, 6.77411770e-003,
          2.46794801e-003, 8.51174537e-003, -2.06761877e-003,
          7.19713792e-003, -3.66021506e-003, 3.66634084e-003,
          1.23715762e-003, 4.61176736e-004, 1.08447913e-002,
          -2.37726746e-003, -2.79799919e-003, -2.65399809e-003,
          -2.78527942e-003, -2.71104090e-003, -5.78766782e-003,
          -1.99547526e-003, -7.40723964e-003, 1.13981939e-003,
          -6.74666977e-003, 5.65227913e-003, -1.08154817e-002,
          -5.38768480e-003, -8.28829501e-003, -5.82616485e-004,
          -2.48419330e-003, 2.09778361e-003, -1.59402541e-003,
          5.48389880e-003, 1.52581837e-003, 6.34576799e-003,
          7.98971392e-003, -8.38303094e-005, 4.31352342e-003,
          -3.97370808e-004, -3.36063589e-004, -1.23858044e-003,
          -1.33293588e-003, 2.44231516e-004, 9.88828856e-003,
          6.34444365e-003, 6.43470744e-003, 1.45116458e-002,
          7.64517637e-004, -8.43347807e-004, 2.41717650e-003,
          2.67280592e-003, 3.74267506e-003, -7.06711831e-003,
          4.35126061e-003, 1.24170654e-003, 7.37114926e-004,
          2.90814182e-003, 5.46343718e-003, 2.90674600e-003,
          4.53542639e-003, 2.20628106e-003, 8.56669992e-003,
          6.07294543e-003, 3.24922847e-003, 6.97935373e-003,
          3.85633134e-003, -8.24348535e-003, 8.84059165e-003,
          -2.03429488e-003, 2.56637833e-003, -2.73548323e-003,
          4.33697924e-003, -3.27151531e-004, 2.78393272e-003,
          -4.23116283e-003, 6.04557758e-003, -7.61735719e-003,
          -8.36634915e-003, -6.55821350e-004, -3.04954825e-003,
          -8.29919614e-003, 7.41794892e-003, -1.08064236e-002,
          4.20376332e-003, -7.06870691e-004, 6.90141274e-003,
          3.81979300e-003, 7.53265573e-004, -1.76950591e-003,
          3.07453470e-003, -3.85715044e-003, -6.11060648e-004,
          -4.85648075e-003, -8.52124533e-004, -2.59276759e-003,
          -2.85891187e-003, -1.22467021e-003, -3.37582501e-003,
          -6.44110842e-003, -4.64119064e-003, -5.07168751e-003,
          -8.34709220e-003, 5.92680241e-004, -6.93833129e-003,
          -4.49257297e-003, -6.05780492e-003, -2.85525504e-003,
          -5.32825757e-003, -3.21845827e-003, 4.05964005e-004,
          -7.75431003e-003, 5.04631829e-003, -1.96801149e-004,
          5.93639910e-003, 1.56124693e-003, 2.21828651e-003,
          -6.43406669e-003 ]
      - [ 2.29552644e-003, 1.04096136e-003, 5.98857831e-003,
          -1.81043416e-003, 1.01745399e-002, -4.59285500e-003,
          1.30647337e-002, -5.72119188e-003, 8.43660347e-003,
          -6.63493015e-003, 3.57739627e-003, -9.14129335e-003,
          1.03795948e-002, -1.00432448e-002, 1.20039075e-003,
          -6.27475372e-003, 7.34405220e-003, 4.48915595e-003,
          5.77440346e-003, 4.32005292e-003, 7.44107738e-003,
          8.05184525e-003, -7.53536442e-005, 6.86782738e-003,
          -2.73375213e-003, 6.89755566e-003, -5.16507355e-003,
          3.91421420e-003, -7.44567858e-003, -1.11767076e-004,
          -7.30452221e-003, -8.64913396e-004, -8.42713844e-003,
          -8.82410270e-004, 1.78157650e-002, 7.51265138e-003,
          8.75740685e-003, 6.65541738e-003, -2.26932997e-003,
          3.56454402e-003, -1.72230341e-002, -3.78483511e-003,
          -2.86226552e-002, -5.58243738e-003, -2.67272256e-002,
          1.04570920e-002, -9.57724545e-003, 5.84408594e-003,
          6.80104969e-003, -1.31653459e-003, 1.49158109e-002,
          -4.52927267e-003, 8.97327438e-003, -5.64418361e-003,
          -1.16261246e-003, 6.16559107e-003, 9.22226172e-004,
          -6.54338906e-003, 5.64500515e-004, -4.07161540e-004,
          -3.41528188e-003, 3.22110741e-003, 1.11712646e-002,
          1.27865421e-002, 4.63210512e-003, 1.28690498e-002,
          1.14258251e-003, -3.05716880e-004, -2.36150553e-003,
          4.34942683e-003, 5.06078126e-003, -1.44298309e-002,
          5.34898974e-003, 2.35569268e-003, 2.04193615e-003,
          1.60077249e-003, 3.27744707e-003, 2.15782435e-004,
          5.12245903e-003, -3.33630061e-003, 9.51120816e-003,
          3.21422261e-003, 9.03589558e-003, 5.78961568e-003,
          7.17565836e-003, 1.07710960e-003, 6.34406740e-003,
          6.73208211e-004, 1.06200133e-003, -1.14105921e-003,
          3.25164851e-003, -1.72586914e-003, 7.68826390e-003,
          -3.55925015e-003, 1.21542718e-002, -2.54645885e-004,
          -3.20827179e-002, 1.28910309e-002, -1.25085292e-002,
          -6.26133569e-003, 6.39743870e-003, -9.40570608e-003,
          7.58599211e-003, -2.15018075e-003, 6.47523953e-003,
          1.76818948e-002, -1.13738952e-002, 4.96076839e-003,
          -1.66507885e-002, -1.71537101e-002, -4.72151861e-003,
          -1.30404462e-003, 4.96920897e-004, 2.68079480e-003,
          2.41591362e-003, -1.14562199e-003, -2.46069883e-003,
          -1.04084490e-002, -1.25505729e-002, -9.24772397e-003,
          -2.09290590e-002, 1.58570465e-002, -6.56682393e-003,
          -2.53840722e-003, -3.56131163e-003, -1.36837503e-003,
          -9.77674313e-003, 8.07964243e-003, -1.16173448e-002,
          -1.93523318e-002, 1.87349599e-002, 1.00927642e-002,
          2.06031129e-002, 3.21915344e-004, 1.57637838e-002,
          -1.70275513e-002 ]
      - [ -5.00543742e-003, -1.43331781e-004, -6.24773838e-003,
          -1.83463725e-003, -1.16225018e-003, -4.11637360e-003,
          -9.82884667e-004, -4.86342469e-003, -2.65244482e-004,
          -4.55013616e-003, 4.04935941e-004, -2.84462352e-003,
          2.65489827e-004, -2.98940140e-004, -5.57816774e-003,
          1.62497035e-003, -7.50481384e-003, -1.87272404e-003,
          -4.84172301e-003, 1.48155703e-003, 1.17851608e-003,
          1.40264782e-003, 1.63866626e-003, 2.39618146e-003,
          -9.32870898e-004, 3.05109448e-003, -2.18074000e-003,
          3.25452210e-003, -1.70469680e-003, 2.34463019e-003,
          -2.37405230e-003, 6.21244311e-004, -1.70190178e-003,
          -1.00713177e-003, 5.00424532e-003, 3.41588375e-003,
          4.02755383e-003, 3.16067808e-003, 5.18738478e-003,
          2.00336357e-003, 7.19196210e-003, 1.21949124e-003,
          5.30727720e-003, 1.07891516e-004, 4.83856117e-003,
          -1.01926411e-003, 4.98853531e-003, -1.69087772e-003,
          4.21835668e-003, -2.22502672e-003, 3.40263662e-003,
          -2.41866591e-003, 1.71110686e-003, -2.26034154e-003,
          6.69445330e-003, -3.16793937e-003, 6.24915492e-003,
          4.31800215e-003, 5.75757539e-003, 2.32119905e-003,
          4.75676637e-003, -1.38518750e-003, -1.81963947e-003,
          -6.68365089e-003, 1.51885062e-004, -2.56609148e-003,
          -3.94644216e-004, 3.80067475e-004, 1.80601934e-003,
          3.01406323e-003, -5.44072282e-005, 6.01740554e-003,
          3.38786538e-003, 1.46017654e-003, 6.59056799e-003,
          8.54815880e-004, 5.21278195e-003, 7.25873047e-004,
          3.79912369e-003, -4.62122580e-006, 2.50935880e-003,
          -4.30339715e-004, 4.19146987e-003, -1.38398760e-003,
          3.71927070e-003, 5.42864320e-004, 5.24049392e-003,
          -1.56916212e-003, 6.36955863e-003, -1.78373046e-003,
          3.80649744e-003, -1.70794909e-003, 2.21070531e-003,
          5.43721835e-004, 9.35284421e-004, -1.60767420e-004,
          1.63023151e-003, -1.27666416e-002, 3.68990446e-003,
          -1.56288426e-002, 6.40479382e-003, -1.01147993e-002,
          9.24551114e-003, -1.84220157e-003, 7.32807722e-003,
          8.88964441e-003, 4.11607651e-003, 1.40919751e-002,
          4.77503985e-003, 1.28422128e-002, -5.46011375e-003,
          5.91660989e-003, -1.16868857e-002, 1.54897955e-003,
          -1.33082913e-002, 1.13829868e-004, -1.19543690e-002,
          -5.63505222e-004, -7.94166699e-003, -4.99966834e-003,
          1.16523553e-003, -1.25002572e-002, 1.00988904e-002,
          -8.04565288e-003, 1.18039753e-002, -1.55580684e-003,
          1.13533475e-002, 6.33493904e-003, 5.12262434e-003,
          1.23896776e-002, -1.10882157e-002, 2.14122306e-003,
          -1.18221957e-002, -2.73992628e-004, -1.18540851e-002,
          -7.31517270e-004 ]
      - [ -2.23639974e-004, -1.60244934e-004, 3.59335914e-004,
          2.25662021e-004, 5.16584655e-003, -7.97059329e-004,
          6.97241072e-003, 1.16677687e-003, 2.74134614e-003,
          1.56631798e-003, -4.63494333e-003, 1.94332562e-003,
          -1.36866467e-003, 1.14833657e-003, -1.16809562e-004,
          1.59279013e-003, 4.06388472e-006, 1.11965113e-003,
          7.69406033e-004, 2.81900610e-003, 2.87907373e-004,
          2.94964714e-003, -2.82266317e-003, 3.05061392e-003,
          1.79275754e-004, 3.36804474e-003, 4.36149584e-003,
          4.10839636e-003, 5.12868213e-003, 3.65309347e-003,
          6.33243646e-004, 1.40973204e-003, -4.71132807e-003,
          -3.97937511e-005, 5.31806436e-004, 4.56420006e-003,
          -1.75435096e-003, 3.85208824e-003, 1.70465955e-003,
          2.83267954e-003, 4.84278472e-003, 8.59599968e-004,
          2.32645287e-003, -4.59043426e-004, 1.87880034e-003,
          6.63598883e-004, 8.77913495e-004, -1.62006088e-003,
          2.33722432e-003, -2.05004751e-003, -1.31407275e-003,
          -3.18488316e-003, -1.93760975e-003, -4.37136460e-003,
          2.70291464e-003, -1.15820905e-003, 3.12883523e-003,
          2.52662855e-003, 4.45354357e-003, 9.14195552e-004,
          -1.72069494e-003, 1.35675407e-004, 4.68646904e-004,
          -6.88397884e-003, 1.31733587e-003, -4.50483803e-003,
          1.82415126e-003, -3.19683983e-004, 1.52034964e-003,
          8.20373837e-003, 2.02639145e-003, 2.44330103e-003,
          -5.06755337e-003, -1.32494583e-003, -4.29195527e-004,
          2.87360395e-004, -2.99659465e-003, 1.39747513e-003,
          -5.29085333e-003, -9.22159292e-004, -5.30403526e-003,
          -1.86831562e-003, -4.03980073e-003, -3.04211886e-003,
          -5.20212436e-003, 2.10073707e-003, -1.19641691e-003,
          -4.90759616e-004, -6.34792494e-004, 4.96187771e-004,
          -4.79293382e-003, 2.31598667e-003, -2.56857858e-003,
          3.01243202e-003, -5.05889440e-003, 2.42156372e-003,
          3.38905258e-003, 1.37939537e-002, 3.78909474e-003,
          8.47179617e-004, 6.34297682e-003, -5.04101766e-003,
          4.75573167e-003, 6.59954036e-004, 6.33888179e-003,
          1.15827203e-003, 5.27326996e-003, -5.72848460e-003,
          4.25773254e-003, -1.61365047e-002, -3.29112425e-003,
          -5.15800668e-003, -6.92758430e-003, -1.85455079e-003,
          -6.92826882e-003, 1.86780596e-003, -7.88258389e-003,
          -9.83072212e-004, -4.65178769e-003, 2.53778696e-003,
          4.27605584e-003, 1.29665677e-002, 4.39492567e-003,
          -1.98175805e-003, 2.69325753e-003, -3.05273291e-003,
          3.26663652e-003, -8.43058981e-004, 6.10087346e-003,
          -1.61764119e-002, 3.93897481e-003, 7.80141199e-005,
          2.69769900e-003, 1.11275306e-003, 1.78862386e-003,
          -3.20084114e-003 ]
      - [ -1.53263109e-002, -2.12774985e-003, -9.93113033e-003,
          -5.69869531e-003, 3.76526470e-004, -9.45108291e-003,
          8.09456408e-003, -8.07826314e-003, 9.25629213e-003,
          -7.67144328e-003, 3.27665522e-003, -6.56962488e-003,
          5.44360513e-003, -6.55635307e-003, -2.13504327e-003,
          -2.30917684e-003, 2.85466365e-003, 2.87981750e-003,
          5.92143694e-003, 2.00212002e-003, 1.31696984e-002,
          5.53895906e-003, 6.74922764e-003, 5.79100195e-003,
          -4.99205780e-004, 2.46137567e-003, -2.65987730e-003,
          4.19491902e-004, 2.82853198e-005, -7.71993829e-004,
          -1.47327455e-003, -2.55347299e-003, -9.71279573e-003,
          -3.88719351e-003, 1.50846355e-002, 8.20952188e-003,
          7.51838274e-003, 7.13543966e-003, 5.01835393e-003,
          2.05247058e-003, 1.42199139e-003, -6.57922169e-003,
          -6.56869216e-003, -1.43253710e-002, -1.37730250e-002,
          7.23430049e-003, -7.23165320e-003, 2.50784820e-003,
          -1.75158889e-003, -2.94970255e-003, 5.21582551e-003,
          -5.76994289e-003, 7.33447494e-003, -8.30776524e-003,
          4.15666448e-003, -1.76958810e-003, 9.48263798e-003,
          1.16325310e-003, 1.30581064e-002, -1.36435044e-003,
          1.02883519e-003, 4.24924074e-003, -4.25674766e-003,
          -7.15003535e-003, -3.83275514e-003, -1.15759391e-002,
          1.33620680e-003, 8.50306544e-003, 8.28806486e-004,
          1.03932573e-002, -8.66559159e-004, 6.27286499e-004,
          -1.97818805e-003, -4.40330198e-003, 5.85819129e-003,
          -1.24684779e-003, 4.02802881e-003, -3.25121451e-004,
          -4.65122564e-003, -4.28288942e-003, -9.99804819e-004,
          -5.21751540e-003, 2.49689328e-003, -6.67796703e-003,
          -6.46060798e-003, 8.08969978e-003, 3.58612812e-003,
          2.03158543e-003, 6.93161320e-003, 3.08825984e-003,
          -4.20780343e-005, 6.61319355e-003, 5.17927296e-003,
          7.93632586e-003, 5.54120343e-004, 7.80450040e-003,
          -1.21871047e-002, 3.30218337e-002, -8.37501325e-003,
          9.52491164e-003, -6.27221423e-004, -6.41796365e-003,
          -4.73096617e-004, -7.56709324e-003, -5.28838777e-004,
          1.17815863e-002, -8.10888782e-003, -5.12394309e-003,
          -1.48509745e-003, -2.72798371e-002, -6.72416715e-003,
          -7.53579603e-004, -7.81142712e-003, 4.19634301e-003,
          -4.89319209e-003, -1.30987051e-003, -7.64334947e-003,
          -1.69826660e-003, -1.08394641e-002, 6.73204474e-003,
          -5.37440553e-003, 3.57625484e-002, -3.51524423e-003,
          -1.95701607e-003, -2.30344571e-003, -6.21120399e-003,
          -1.88252784e-003, 4.90159355e-003, 4.79347724e-003,
          -2.74632052e-002, 1.83975268e-002, 1.09695569e-002,
          1.49315838e-002, 1.23496884e-002, 1.47395236e-002,
          -5.70563180e-003 ]
      - [ 3.80748487e-003, -1.47001396e-004, 4.37782798e-003,
          -1.32563146e-004, 5.07119764e-003, 6.23735483e-004,
          3.99009557e-003, 1.63537101e-003, 1.70805829e-003,
          2.20134016e-003, 1.74117263e-003, 1.32457621e-003,
          -3.49884946e-003, -9.03471155e-005, 8.76356964e-004,
          -1.57673319e-003, 6.29538111e-003, 1.48439038e-004,
          5.88656287e-004, -2.30154055e-005, -5.48766227e-003,
          -7.16703071e-004, -6.84934808e-003, -1.74499501e-003,
          -4.10438608e-003, -1.61786354e-003, 3.17299389e-003,
          -6.99672906e-004, 4.51260526e-003, 1.01490004e-003,
          4.40998841e-003, 1.34908257e-003, 4.33030631e-003,
          2.32098228e-003, -7.89721683e-003, -3.30579770e-003,
          -5.54384151e-003, -2.52150255e-003, -6.38387958e-003,
          -1.82642182e-003, -8.57433770e-003, -1.31265575e-003,
          -7.21354969e-003, -6.22447405e-004, -6.64319424e-003,
          4.14432911e-003, -5.04796952e-003, 3.47925490e-003,
          3.14173958e-004, 1.76675257e-003, 1.58583838e-003,
          1.51018426e-003, 3.90145346e-003, 1.04865141e-003,
          -1.77437207e-003, -4.82171075e-003, -4.41392534e-004,
          5.08569321e-003, 1.08493795e-003, -3.38628166e-003,
          1.57450512e-003, 2.40942507e-004, 3.44328379e-004,
          1.03453174e-003, 4.42396849e-004, -4.77446476e-003,
          2.60881893e-003, -2.42192415e-003, -3.43072019e-003,
          6.64601848e-003, -3.63519182e-003, -5.31216152e-003,
          -6.28357893e-003, -8.12391692e-004, -7.46628828e-003,
          -8.73454064e-006, -4.25971672e-003, -5.76501596e-004,
          -4.89233900e-003, 5.43894887e-004, -3.11837066e-003,
          1.31515742e-004, -7.32070906e-003, 8.50966608e-004,
          -2.79082940e-003, -1.59831543e-004, -3.19537544e-003,
          5.56546845e-004, -6.30086102e-003, -1.07571145e-003,
          -3.32463649e-003, -1.36196660e-003, -2.48919311e-003,
          -3.13405879e-003, 1.55065165e-004, -3.93352413e-004,
          7.77441775e-004, 1.80960763e-002, 3.15705058e-003,
          1.22021548e-002, 6.16136892e-003, 6.78579276e-003,
          -3.82922008e-004, 2.75851111e-003, 1.56825408e-003,
          1.22309767e-003, -3.20529076e-003, -1.07120099e-002,
          -3.49358609e-003, -2.18890850e-002, -7.08338688e-004,
          -6.59023551e-003, 2.19222275e-003, -2.43935524e-003,
          5.22894086e-003, 1.42281537e-003, 5.04474249e-003,
          1.03456667e-003, 1.05778873e-003, 7.01252697e-003,
          2.02129642e-003, 2.20019873e-002, -1.04163671e-002,
          8.81451648e-003, -1.15210582e-002, 1.14633341e-003,
          -1.26599250e-002, -5.94081497e-003, -1.48808863e-003,
          -2.32046992e-002, 1.75390467e-002, 3.90861096e-004,
          1.78235993e-002, -4.85891767e-004, 1.84448771e-002,
          -1.76819053e-003 ]
      - [ -3.41954082e-003, -6.11561409e-004, -7.05122016e-004,
          -8.44814698e-004, -1.49957428e-003, -7.56960944e-004,
          3.25193792e-003, -3.14452132e-004, 8.31052661e-003,
          4.00128862e-004, 8.62939004e-003, 7.61921750e-004,
          5.38000092e-003, 4.31297318e-004, 5.37265744e-003,
          -3.34579381e-004, 8.88619665e-003, 3.77085613e-004,
          3.60613805e-003, -1.67718288e-004, 4.11510206e-004,
          -1.51719246e-003, -4.51229680e-005, -3.16315680e-003,
          1.26384327e-003, -3.37201613e-003, 5.08161902e-004,
          -2.33147433e-003, 5.91421849e-004, -4.20127151e-004,
          1.45225599e-003, 1.81232975e-003, -1.40122941e-003,
          3.29404767e-003, 3.30259255e-003, 1.12080469e-003,
          1.98653340e-003, 1.11580221e-003, -1.30005111e-003,
          7.21282791e-004, -7.00727804e-003, -1.65880879e-003,
          -8.92513618e-003, -2.59950361e-003, -1.31386733e-002,
          2.92179664e-003, -1.15036117e-002, 2.90363492e-003,
          -5.98759623e-003, 1.67219562e-003, -1.77543785e-003,
          1.19841367e-003, 1.82307686e-003, 1.32487493e-003,
          -7.08843989e-004, 1.21721067e-003, -8.12390994e-004,
          -4.67288028e-003, -1.92353339e-003, 1.30718050e-003,
          -5.29642357e-003, 2.18642573e-003, 1.39206462e-003,
          1.17026502e-003, 1.35288085e-003, -3.14056920e-003,
          3.05686262e-003, 2.16390425e-003, -1.86970935e-003,
          6.11566193e-003, -2.45069666e-003, -2.20973976e-003,
          3.55524062e-005, 9.67499160e-004, 2.33782874e-003,
          1.94220594e-003, 1.51248032e-003, 1.59159675e-003,
          -2.21010484e-003, 4.77811234e-004, 2.60481471e-003,
          8.80357285e-004, 1.78808288e-003, 1.91854523e-003,
          -2.92794500e-003, 3.70046881e-004, 1.12408411e-003,
          -8.63265654e-004, -5.44475974e-004, -1.63644715e-003,
          -1.34174677e-003, 3.59065249e-004, 9.30226292e-004,
          -1.92359230e-003, 8.90424068e-004, -1.16887712e-003,
          -7.13586167e-004, 1.88332014e-002, 1.80061045e-003,
          9.65268537e-003, 2.22122297e-003, 7.59832503e-004,
          6.67322776e-004, -9.73998103e-004, 1.93091657e-003,
          -1.34288927e-003, -1.91772159e-003, -1.07274046e-002,
          -6.44467771e-003, -2.14753710e-002, -2.93957279e-003,
          -7.85997696e-003, 1.45048520e-003, -2.87344307e-003,
          4.32442781e-003, 3.89289402e-004, 4.06210404e-003,
          -8.98541417e-004, 1.35827926e-003, 6.46251161e-003,
          2.70000449e-003, 1.98279936e-002, -3.56168230e-003,
          4.07502288e-003, -4.47123498e-003, 9.10797622e-004,
          -5.91290882e-003, -3.28737567e-003, -4.07527573e-003,
          -2.04496011e-002, 8.83402955e-003, -1.02601317e-003,
          1.01523325e-002, 1.26830430e-003, 1.04169026e-002,
          -1.84461602e-003 ]
      - [ -3.19001358e-003, 1.24666980e-003, -3.46990651e-003,
          1.50209968e-003, -4.63724742e-003, 2.36510066e-003,
          -7.77839392e-004, 3.72855109e-004, 5.80869708e-003,
          -1.19954103e-003, 7.13014416e-003, -1.77798502e-003,
          4.04220121e-003, -2.73178658e-003, -6.11267751e-006,
          -2.47367448e-003, 6.97000464e-003, -1.51248905e-003,
          2.01485120e-003, -9.73810500e-004, 5.57937368e-004,
          -4.32011555e-004, 2.11411435e-003, -1.34307251e-003,
          2.71678390e-003, -2.24482175e-003, -3.75984656e-003,
          -2.05724756e-003, -6.17424212e-003, -1.96520123e-003,
          -3.25920200e-003, -1.60944660e-003, -5.57799265e-003,
          -2.30909511e-003, 8.51603411e-003, 9.09133465e-004,
          7.82030169e-003, 8.49113974e-004, 4.04113997e-003,
          3.16919068e-005, -1.74257858e-003, -2.63977889e-003,
          -9.44799930e-003, -4.71519819e-003, -1.06058903e-002,
          3.00121144e-003, -5.82866790e-003, 2.84694042e-003,
          1.52782490e-003, 2.05886574e-003, 7.10775796e-003,
          8.05858988e-004, 7.36403139e-003, 8.63847497e-004,
          -1.68409094e-003, -3.66265624e-004, 3.69532732e-003,
          -2.25434010e-003, 6.30846433e-003, 3.49044538e-004,
          -8.46607145e-003, 1.16243621e-003, -4.80563287e-003,
          7.51911802e-003, -1.67932012e-003, 5.55776572e-003,
          -4.69595240e-003, 2.34113517e-003, -8.50862078e-003,
          2.71503092e-003, -5.45825716e-003, -7.42311729e-003,
          2.16655154e-003, -2.17463064e-004, 4.66863764e-003,
          2.82363617e-004, 6.47873036e-004, 3.11563490e-004,
          -7.58625427e-003, -2.37850007e-003, -5.75735187e-003,
          -5.40379016e-003, 4.56877635e-004, -5.81662310e-003,
          -6.21297071e-003, 3.90798366e-003, 2.78142770e-003,
          1.17580453e-003, 7.27393199e-003, 1.72463362e-003,
          3.55510134e-003, 2.99213617e-003, 8.47590738e-004,
          7.38215726e-003, -2.87834206e-003, 7.01502850e-003,
          -9.01136082e-003, 5.21446252e-003, -5.08321216e-004,
          1.29778055e-004, -4.46319900e-004, -1.78227166e-003,
          1.47821754e-003, -1.91078044e-003, -1.38558878e-003,
          3.92510416e-003, -8.75559263e-003, 2.86104856e-003,
          -1.30520258e-002, -7.66327512e-003, -7.95331132e-003,
          3.72681883e-004, 4.45447024e-003, 2.70504109e-003,
          8.28140043e-003, -4.10158513e-003, 8.06544349e-003,
          -2.44623888e-003, -2.36175751e-004, -4.39040799e-004,
          -7.63269747e-003, 5.44669991e-003, 2.40392168e-003,
          -1.91149290e-003, 2.15651002e-003, -3.55671393e-004,
          -1.28466098e-004, 1.27657445e-003, -1.15089556e-002,
          -6.00656541e-003, 3.60967359e-003, 2.97468738e-003,
          6.90495269e-003, 3.89923553e-005, 8.28297250e-003,
          -1.75007875e-003 ]
   decision_functions:
      -
         sv_count: 1
         rho: 2.0850448141425435e+001
         alpha: [ 1. ]
         index: [ 0 ]
      -
         sv_count: 1
         rho: 2.4621084494714836e+001
         alpha: [ 1. ]
         index: [ 1 ]
      -
         sv_count: 1
         rho: 6.5469578312029224e+000
         alpha: [ 1. ]
         index: [ 2 ]
      -
         sv_count: 1
         rho: 1.2287354415588450e+001
         alpha: [ 1. ]
         index: [ 3 ]
      -
         sv_count: 1
         rho: 1.4126626857619014e+001
         alpha: [ 1. ]
         index: [ 4 ]
      -
         sv_count: 1
         rho: 1.7417983057788011e-001
         alpha: [ 1. ]
         index: [ 5 ]
      -
         sv_count: 1
         rho: 1.8864747848686064e-001
         alpha: [ 1. ]
         index: [ 6 ]
      -
         sv_count: 1
         rho: -1.2171130147925169e+001
         alpha: [ 1. ]
         index: [ 7 ]
      -
         sv_count: 1
         rho: -4.5913306544594370e+000
         alpha: [ 1. ]
         index: [ 8 ]
      -
         sv_count: 1
         rho: -2.4754190794642486e+000
         alpha: [ 1. ]
         index: [ 9 ]
